<?xml version="1.0"?>
<opencv_storage>
<cascade>
  <stageType>BOOST</stageType>
  <featureType>HAAR</featureType>
  <height>24</height>
  <width>24</width>
  <stageParams>
    <boostType>GAB</boostType>
    <minHitRate>9.9500000476837158e-01</minHitRate>
    <maxFalseAlarm>6.0000002384185791e-01</maxFalseAlarm>
    <weightTrimRate>9.4999999999999996e-01</weightTrimRate>
    <maxDepth>1</maxDepth>
    <maxWeakCount>100</maxWeakCount></stageParams>
  <featureParams>
    <maxCatCount>0</maxCatCount>
    <featSize>1</featSize>
    <mode>BASIC</mode></featureParams>
  <stageNum>9</stageNum>
  <stages>
    <!-- stage 0 -->
    <_>
      <maxWeakCount>1</maxWeakCount>
      <stageThreshold>8.2608693838119507e-01</stageThreshold>
      <weakClassifiers>
        <_>
          <internalNodes>
            0 -1 6 -2.0825512707233429e-01</internalNodes>
          <leafValues>
            8.2608693838119507e-01 -1.</leafValues></_></weakClassifiers></_>
    <!-- stage 1 -->
    <_>
      <maxWeakCount>1</maxWeakCount>
      <stageThreshold>9.6875000000000000e-01</stageThreshold>
      <weakClassifiers>
        <_>
          <internalNodes>
            0 -1 3 1.6810590028762817e-01</internalNodes>
          <leafValues>
            -1. 9.6875000000000000e-01</leafValues></_></weakClassifiers></_>
    <!-- stage 2 -->
    <_>
      <maxWeakCount>2</maxWeakCount>
      <stageThreshold>7.8055270016193390e-02</stageThreshold>
      <weakClassifiers>
        <_>
          <internalNodes>
            0 -1 11 -4.1098333895206451e-02</internalNodes>
          <leafValues>
            9.6428573131561279e-01 -7.9220777750015259e-01</leafValues></_>
        <_>
          <internalNodes>
            0 -1 10 2.3969346657395363e-03</internalNodes>
          <leafValues>
            -8.8623046875000000e-01 8.8386571407318115e-01</leafValues></_></weakClassifiers></_>
    <!-- stage 3 -->
    <_>
      <maxWeakCount>2</maxWeakCount>
      <stageThreshold>-2.8818911314010620e-01</stageThreshold>
      <weakClassifiers>
        <_>
          <internalNodes>
            0 -1 14 -3.0341360718011856e-02</internalNodes>
          <leafValues>
            7.7142858505249023e-01 -9.6825397014617920e-01</leafValues></_>
        <_>
          <internalNodes>
            0 -1 7 -2.2275119554251432e-03</internalNodes>
          <leafValues>
            6.8006485700607300e-01 -1.</leafValues></_></weakClassifiers></_>
    <!-- stage 4 -->
    <_>
      <maxWeakCount>2</maxWeakCount>
      <stageThreshold>-4.2167238891124725e-02</stageThreshold>
      <weakClassifiers>
        <_>
          <internalNodes>
            0 -1 4 -1.3113857130520046e-04</internalNodes>
          <leafValues>
            7.9411762952804565e-01 -9.3846154212951660e-01</leafValues></_>
        <_>
          <internalNodes>
            0 -1 5 -3.3894395828247070e-01</internalNodes>
          <leafValues>
            8.9629429578781128e-01 -8.0919170379638672e-01</leafValues></_></weakClassifiers></_>
    <!-- stage 5 -->
    <_>
      <maxWeakCount>2</maxWeakCount>
      <stageThreshold>-1.4783927239477634e-02</stageThreshold>
      <weakClassifiers>
        <_>
          <internalNodes>
            0 -1 12 2.9635433107614517e-02</internalNodes>
          <leafValues>
            -7.1794873476028442e-01 8.9090907573699951e-01</leafValues></_>
        <_>
          <internalNodes>
            0 -1 2 -2.5303566455841064e-01</internalNodes>
          <leafValues>
            7.2170811891555786e-01 -9.0569299459457397e-01</leafValues></_></weakClassifiers></_>
    <!-- stage 6 -->
    <_>
      <maxWeakCount>1</maxWeakCount>
      <stageThreshold>8.0000001192092896e-01</stageThreshold>
      <weakClassifiers>
        <_>
          <internalNodes>
            0 -1 9 1.2676522135734558e-02</internalNodes>
          <leafValues>
            -1. 8.0000001192092896e-01</leafValues></_></weakClassifiers></_>
    <!-- stage 7 -->
    <_>
      <maxWeakCount>2</maxWeakCount>
      <stageThreshold>1.3310329616069794e-01</stageThreshold>
      <weakClassifiers>
        <_>
          <internalNodes>
            0 -1 13 -7.0814960636198521e-03</internalNodes>
          <leafValues>
            8.9655172824859619e-01 -7.8666669130325317e-01</leafValues></_>
        <_>
          <internalNodes>
            0 -1 1 3.5164281725883484e-03</internalNodes>
          <leafValues>
            -7.6344841718673706e-01 9.2510008811950684e-01</leafValues></_></weakClassifiers></_>
    <!-- stage 8 -->
    <_>
      <maxWeakCount>2</maxWeakCount>
      <stageThreshold>-1.8825531005859375e-02</stageThreshold>
      <weakClassifiers>
        <_>
          <internalNodes>
            0 -1 8 4.5318026095628738e-02</internalNodes>
          <leafValues>
            -6.2352943420410156e-01 9.5833331346511841e-01</leafValues></_>
        <_>
          <internalNodes>
            0 -1 0 8.6488217115402222e-02</internalNodes>
          <leafValues>
            -1. 6.0470390319824219e-01</leafValues></_></weakClassifiers></_></stages>
  <features>
    <_>
      <rects>
        <_>
          1 3 16 5 -1.</_>
        <_>
          9 3 8 5 2.</_></rects>
      <tilted>0</tilted></_>
    <_>
      <rects>
        <_>
          2 2 7 4 -1.</_>
        <_>
          2 4 7 2 2.</_></rects>
      <tilted>0</tilted></_>
    <_>
      <rects>
        <_>
          2 6 15 18 -1.</_>
        <_>
          2 15 15 9 2.</_></rects>
      <tilted>0</tilted></_>
    <_>
      <rects>
        <_>
          2 8 16 13 -1.</_>
        <_>
          10 8 8 13 2.</_></rects>
      <tilted>0</tilted></_>
    <_>
      <rects>
        <_>
          2 17 2 7 -1.</_>
        <_>
          3 17 1 7 2.</_></rects>
      <tilted>0</tilted></_>
    <_>
      <rects>
        <_>
          5 6 16 18 -1.</_>
        <_>
          5 15 16 9 2.</_></rects>
      <tilted>0</tilted></_>
    <_>
      <rects>
        <_>
          6 6 15 16 -1.</_>
        <_>
          6 14 15 8 2.</_></rects>
      <tilted>0</tilted></_>
    <_>
      <rects>
        <_>
          7 0 16 4 -1.</_>
        <_>
          15 0 8 4 2.</_></rects>
      <tilted>0</tilted></_>
    <_>
      <rects>
        <_>
          7 0 11 9 -1.</_>
        <_>
          7 3 11 3 3.</_></rects>
      <tilted>0</tilted></_>
    <_>
      <rects>
        <_>
          7 17 14 7 -1.</_>
        <_>
          14 17 7 7 2.</_></rects>
      <tilted>0</tilted></_>
    <_>
      <rects>
        <_>
          13 0 2 4 -1.</_>
        <_>
          13 2 2 2 2.</_></rects>
      <tilted>0</tilted></_>
    <_>
      <rects>
        <_>
          14 2 10 5 -1.</_>
        <_>
          19 2 5 5 2.</_></rects>
      <tilted>0</tilted></_>
    <_>
      <rects>
        <_>
          16 1 4 8 -1.</_>
        <_>
          16 5 4 4 2.</_></rects>
      <tilted>0</tilted></_>
    <_>
      <rects>
        <_>
          16 5 8 1 -1.</_>
        <_>
          20 5 4 1 2.</_></rects>
      <tilted>0</tilted></_>
    <_>
      <rects>
        <_>
          18 3 6 17 -1.</_>
        <_>
          21 3 3 17 2.</_></rects>
      <tilted>0</tilted></_></features></cascade>
</opencv_storage>
