<?xml version="1.0"?>
<opencv_storage>
<cascade>
  <stageType>BOOST</stageType>
  <featureType>HAAR</featureType>
  <height>24</height>
  <width>24</width>
  <stageParams>
    <boostType>GAB</boostType>
    <minHitRate>9.9500000476837158e-01</minHitRate>
    <maxFalseAlarm>3.0000001192092896e-01</maxFalseAlarm>
    <weightTrimRate>9.4999999999999996e-01</weightTrimRate>
    <maxDepth>1</maxDepth>
    <maxWeakCount>100</maxWeakCount></stageParams>
  <featureParams>
    <maxCatCount>0</maxCatCount>
    <featSize>1</featSize>
    <mode>BASIC</mode></featureParams>
  <stageNum>10</stageNum>
  <stages>
    <!-- stage 0 -->
    <_>
      <maxWeakCount>3</maxWeakCount>
      <stageThreshold>2.2969438135623932e-01</stageThreshold>
      <weakClassifiers>
        <_>
          <internalNodes>
            0 -1 25 -1.5439429879188538e-01</internalNodes>
          <leafValues>
            7.0370370149612427e-01 -9.3939393758773804e-01</leafValues></_>
        <_>
          <internalNodes>
            0 -1 36 -1.0731213260442019e-03</internalNodes>
          <leafValues>
            5.6179428100585938e-01 -8.6808115243911743e-01</leafValues></_>
        <_>
          <internalNodes>
            0 -1 12 -4.9924460472539067e-04</internalNodes>
          <leafValues>
            6.0729402303695679e-01 -8.5380923748016357e-01</leafValues></_></weakClassifiers></_>
    <!-- stage 1 -->
    <_>
      <maxWeakCount>3</maxWeakCount>
      <stageThreshold>1.2087845057249069e-01</stageThreshold>
      <weakClassifiers>
        <_>
          <internalNodes>
            0 -1 3 -1.9323492422699928e-02</internalNodes>
          <leafValues>
            4.4615384936332703e-01 -9.7402596473693848e-01</leafValues></_>
        <_>
          <internalNodes>
            0 -1 23 2.7187885716557503e-02</internalNodes>
          <leafValues>
            -9.0162748098373413e-01 4.4198632240295410e-01</leafValues></_>
        <_>
          <internalNodes>
            0 -1 31 -4.0106801316142082e-03</internalNodes>
          <leafValues>
            6.5291810035705566e-01 -7.5422644615173340e-01</leafValues></_></weakClassifiers></_>
    <!-- stage 2 -->
    <_>
      <maxWeakCount>3</maxWeakCount>
      <stageThreshold>-1.0374866724014282e+00</stageThreshold>
      <weakClassifiers>
        <_>
          <internalNodes>
            0 -1 34 1.4890002086758614e-02</internalNodes>
          <leafValues>
            -6.7567569017410278e-01 6.0416668653488159e-01</leafValues></_>
        <_>
          <internalNodes>
            0 -1 26 -3.2087951898574829e-02</internalNodes>
          <leafValues>
            4.8631376028060913e-01 -7.8096359968185425e-01</leafValues></_>
        <_>
          <internalNodes>
            0 -1 11 -1.4152935473248363e-03</internalNodes>
          <leafValues>
            4.1215831041336060e-01 -8.6068969964981079e-01</leafValues></_></weakClassifiers></_>
    <!-- stage 3 -->
    <_>
      <maxWeakCount>5</maxWeakCount>
      <stageThreshold>-9.8132394254207611e-02</stageThreshold>
      <weakClassifiers>
        <_>
          <internalNodes>
            0 -1 20 1.1842177249491215e-02</internalNodes>
          <leafValues>
            -8.2926827669143677e-01 4.0799999237060547e-01</leafValues></_>
        <_>
          <internalNodes>
            0 -1 8 5.1806343253701925e-04</internalNodes>
          <leafValues>
            2.7986565232276917e-01 -1.</leafValues></_>
        <_>
          <internalNodes>
            0 -1 24 3.6635622382164001e-02</internalNodes>
          <leafValues>
            -4.8087126016616821e-01 8.0449718236923218e-01</leafValues></_>
        <_>
          <internalNodes>
            0 -1 37 4.4730601075571030e-05</internalNodes>
          <leafValues>
            -6.6748464107513428e-01 6.0995310544967651e-01</leafValues></_>
        <_>
          <internalNodes>
            0 -1 18 -1.2776604853570461e-04</internalNodes>
          <leafValues>
            -9.8989814519882202e-01 3.6235785484313965e-01</leafValues></_></weakClassifiers></_>
    <!-- stage 4 -->
    <_>
      <maxWeakCount>5</maxWeakCount>
      <stageThreshold>-2.0968461036682129e-01</stageThreshold>
      <weakClassifiers>
        <_>
          <internalNodes>
            0 -1 2 2.9701119661331177e-01</internalNodes>
          <leafValues>
            -5.1824820041656494e-01 7.7142858505249023e-01</leafValues></_>
        <_>
          <internalNodes>
            0 -1 9 -4.9827224574983120e-04</internalNodes>
          <leafValues>
            -8.7733072042465210e-01 4.2966324090957642e-01</leafValues></_>
        <_>
          <internalNodes>
            0 -1 6 1.1041520338039845e-04</internalNodes>
          <leafValues>
            3.4601002931594849e-01 -9.8511695861816406e-01</leafValues></_>
        <_>
          <internalNodes>
            0 -1 17 -1.4866603538393974e-02</internalNodes>
          <leafValues>
            4.3400663137435913e-01 -8.2187366485595703e-01</leafValues></_>
        <_>
          <internalNodes>
            0 -1 39 -3.6361997481435537e-03</internalNodes>
          <leafValues>
            -8.1488561630249023e-01 4.0587764978408813e-01</leafValues></_></weakClassifiers></_>
    <!-- stage 5 -->
    <_>
      <maxWeakCount>4</maxWeakCount>
      <stageThreshold>2.8794276714324951e-01</stageThreshold>
      <weakClassifiers>
        <_>
          <internalNodes>
            0 -1 21 -5.6810103356838226e-02</internalNodes>
          <leafValues>
            4.5454546809196472e-01 -6.9072163105010986e-01</leafValues></_>
        <_>
          <internalNodes>
            0 -1 29 4.3702693656086922e-03</internalNodes>
          <leafValues>
            -8.4699231386184692e-01 3.7420886754989624e-01</leafValues></_>
        <_>
          <internalNodes>
            0 -1 4 -2.3076860088622198e-05</internalNodes>
          <leafValues>
            3.6905333399772644e-01 -8.5926073789596558e-01</leafValues></_>
        <_>
          <internalNodes>
            0 -1 19 3.4384182654321194e-03</internalNodes>
          <leafValues>
            3.4325742721557617e-01 -9.0986490249633789e-01</leafValues></_></weakClassifiers></_>
    <!-- stage 6 -->
    <_>
      <maxWeakCount>4</maxWeakCount>
      <stageThreshold>-4.6634307503700256e-01</stageThreshold>
      <weakClassifiers>
        <_>
          <internalNodes>
            0 -1 7 -1.0748552158474922e-03</internalNodes>
          <leafValues>
            -1. 3.5714286565780640e-01</leafValues></_>
        <_>
          <internalNodes>
            0 -1 1 3.3441573381423950e-01</internalNodes>
          <leafValues>
            -5.4701089859008789e-01 8.6690241098403931e-01</leafValues></_>
        <_>
          <internalNodes>
            0 -1 16 -9.0162158012390137e-03</internalNodes>
          <leafValues>
            5.9905731678009033e-01 -6.9856905937194824e-01</leafValues></_>
        <_>
          <internalNodes>
            0 -1 40 1.2688373681157827e-03</internalNodes>
          <leafValues>
            4.2209398746490479e-01 -8.4635871648788452e-01</leafValues></_></weakClassifiers></_>
    <!-- stage 7 -->
    <_>
      <maxWeakCount>4</maxWeakCount>
      <stageThreshold>-3.6005547642707825e-01</stageThreshold>
      <weakClassifiers>
        <_>
          <internalNodes>
            0 -1 27 5.3309102077037096e-04</internalNodes>
          <leafValues>
            -6.3025212287902832e-01 6.5909093618392944e-01</leafValues></_>
        <_>
          <internalNodes>
            0 -1 32 -3.5396139719523489e-04</internalNodes>
          <leafValues>
            5.9529429674148560e-01 -5.7289302349090576e-01</leafValues></_>
        <_>
          <internalNodes>
            0 -1 10 -4.8829619772732258e-03</internalNodes>
          <leafValues>
            6.0515022277832031e-01 -6.8427592515945435e-01</leafValues></_>
        <_>
          <internalNodes>
            0 -1 14 1.7153322696685791e-02</internalNodes>
          <leafValues>
            -9.3024790287017822e-01 3.6829411983489990e-01</leafValues></_></weakClassifiers></_>
    <!-- stage 8 -->
    <_>
      <maxWeakCount>5</maxWeakCount>
      <stageThreshold>-3.9410635828971863e-01</stageThreshold>
      <weakClassifiers>
        <_>
          <internalNodes>
            0 -1 22 1.9284074369352311e-05</internalNodes>
          <leafValues>
            -7.1428573131561279e-01 4.8623853921890259e-01</leafValues></_>
        <_>
          <internalNodes>
            0 -1 30 1.9490378908813000e-03</internalNodes>
          <leafValues>
            3.9153510332107544e-01 -7.3955667018890381e-01</leafValues></_>
        <_>
          <internalNodes>
            0 -1 5 -3.8298085564747453e-04</internalNodes>
          <leafValues>
            -8.4103035926818848e-01 3.8410642743110657e-01</leafValues></_>
        <_>
          <internalNodes>
            0 -1 33 -2.3633358068764210e-04</internalNodes>
          <leafValues>
            -7.8216159343719482e-01 3.7882772088050842e-01</leafValues></_>
        <_>
          <internalNodes>
            0 -1 13 -2.1044528693892062e-04</internalNodes>
          <leafValues>
            -7.9439181089401245e-01 3.9084684848785400e-01</leafValues></_></weakClassifiers></_>
    <!-- stage 9 -->
    <_>
      <maxWeakCount>5</maxWeakCount>
      <stageThreshold>-1.2745623290538788e-01</stageThreshold>
      <weakClassifiers>
        <_>
          <internalNodes>
            0 -1 15 -1.0236328840255737e-01</internalNodes>
          <leafValues>
            3.1468531489372253e-01 -9.6875000000000000e-01</leafValues></_>
        <_>
          <internalNodes>
            0 -1 0 2.3926352150738239e-03</internalNodes>
          <leafValues>
            2.6562342047691345e-01 -8.6835908889770508e-01</leafValues></_>
        <_>
          <internalNodes>
            0 -1 28 -6.6119357943534851e-02</internalNodes>
          <leafValues>
            3.2644703984260559e-01 -8.4694260358810425e-01</leafValues></_>
        <_>
          <internalNodes>
            0 -1 35 -2.4732321500778198e-02</internalNodes>
          <leafValues>
            7.4557727575302124e-01 -4.3470072746276855e-01</leafValues></_>
        <_>
          <internalNodes>
            0 -1 38 4.2357671190984547e-05</internalNodes>
          <leafValues>
            -5.9951126575469971e-01 6.8679648637771606e-01</leafValues></_></weakClassifiers></_></stages>
  <features>
    <_>
      <rects>
        <_>
          0 1 8 1 -1.</_>
        <_>
          4 1 4 1 2.</_></rects>
      <tilted>0</tilted></_>
    <_>
      <rects>
        <_>
          0 3 18 16 -1.</_>
        <_>
          9 3 9 16 2.</_></rects>
      <tilted>0</tilted></_>
    <_>
      <rects>
        <_>
          0 4 18 15 -1.</_>
        <_>
          9 4 9 15 2.</_></rects>
      <tilted>0</tilted></_>
    <_>
      <rects>
        <_>
          0 12 16 12 -1.</_>
        <_>
          0 12 8 6 2.</_>
        <_>
          8 18 8 6 2.</_></rects>
      <tilted>0</tilted></_>
    <_>
      <rects>
        <_>
          0 15 2 6 -1.</_>
        <_>
          1 15 1 6 2.</_></rects>
      <tilted>0</tilted></_>
    <_>
      <rects>
        <_>
          0 19 2 2 -1.</_>
        <_>
          1 19 1 2 2.</_></rects>
      <tilted>0</tilted></_>
    <_>
      <rects>
        <_>
          0 20 2 4 -1.</_>
        <_>
          1 20 1 4 2.</_></rects>
      <tilted>0</tilted></_>
    <_>
      <rects>
        <_>
          0 21 6 2 -1.</_>
        <_>
          2 21 2 2 3.</_></rects>
      <tilted>0</tilted></_>
    <_>
      <rects>
        <_>
          1 0 2 3 -1.</_>
        <_>
          2 0 1 3 2.</_></rects>
      <tilted>0</tilted></_>
    <_>
      <rects>
        <_>
          1 0 2 5 -1.</_>
        <_>
          2 0 1 5 2.</_></rects>
      <tilted>0</tilted></_>
    <_>
      <rects>
        <_>
          1 0 4 18 -1.</_>
        <_>
          1 0 2 9 2.</_>
        <_>
          3 9 2 9 2.</_></rects>
      <tilted>0</tilted></_>
    <_>
      <rects>
        <_>
          1 14 4 6 -1.</_>
        <_>
          3 14 2 6 2.</_></rects>
      <tilted>0</tilted></_>
    <_>
      <rects>
        <_>
          1 19 6 1 -1.</_>
        <_>
          4 19 3 1 2.</_></rects>
      <tilted>0</tilted></_>
    <_>
      <rects>
        <_>
          3 0 1 3 -1.</_>
        <_>
          3 1 1 1 3.</_></rects>
      <tilted>0</tilted></_>
    <_>
      <rects>
        <_>
          3 0 18 11 -1.</_>
        <_>
          12 0 9 11 2.</_></rects>
      <tilted>0</tilted></_>
    <_>
      <rects>
        <_>
          3 3 10 18 -1.</_>
        <_>
          3 12 10 9 2.</_></rects>
      <tilted>0</tilted></_>
    <_>
      <rects>
        <_>
          3 11 6 10 -1.</_>
        <_>
          3 11 3 5 2.</_>
        <_>
          6 16 3 5 2.</_></rects>
      <tilted>0</tilted></_>
    <_>
      <rects>
        <_>
          3 15 14 8 -1.</_>
        <_>
          3 15 7 4 2.</_>
        <_>
          10 19 7 4 2.</_></rects>
      <tilted>0</tilted></_>
    <_>
      <rects>
        <_>
          3 21 3 1 -1.</_>
        <_>
          4 21 1 1 3.</_></rects>
      <tilted>0</tilted></_>
    <_>
      <rects>
        <_>
          4 0 20 2 -1.</_>
        <_>
          14 0 10 2 2.</_></rects>
      <tilted>0</tilted></_>
    <_>
      <rects>
        <_>
          4 4 14 2 -1.</_>
        <_>
          11 4 7 2 2.</_></rects>
      <tilted>0</tilted></_>
    <_>
      <rects>
        <_>
          4 12 16 8 -1.</_>
        <_>
          4 16 16 4 2.</_></rects>
      <tilted>0</tilted></_>
    <_>
      <rects>
        <_>
          6 1 2 2 -1.</_>
        <_>
          6 2 2 1 2.</_></rects>
      <tilted>0</tilted></_>
    <_>
      <rects>
        <_>
          6 16 14 8 -1.</_>
        <_>
          13 16 7 8 2.</_></rects>
      <tilted>0</tilted></_>
    <_>
      <rects>
        <_>
          7 0 9 9 -1.</_>
        <_>
          7 3 9 3 3.</_></rects>
      <tilted>0</tilted></_>
    <_>
      <rects>
        <_>
          7 2 9 22 -1.</_>
        <_>
          7 13 9 11 2.</_></rects>
      <tilted>0</tilted></_>
    <_>
      <rects>
        <_>
          7 12 6 10 -1.</_>
        <_>
          7 17 6 5 2.</_></rects>
      <tilted>0</tilted></_>
    <_>
      <rects>
        <_>
          8 1 2 2 -1.</_>
        <_>
          8 2 2 1 2.</_></rects>
      <tilted>0</tilted></_>
    <_>
      <rects>
        <_>
          9 4 11 14 -1.</_>
        <_>
          9 11 11 7 2.</_></rects>
      <tilted>0</tilted></_>
    <_>
      <rects>
        <_>
          9 21 12 2 -1.</_>
        <_>
          15 21 6 2 2.</_></rects>
      <tilted>0</tilted></_>
    <_>
      <rects>
        <_>
          12 23 12 1 -1.</_>
        <_>
          16 23 4 1 3.</_></rects>
      <tilted>0</tilted></_>
    <_>
      <rects>
        <_>
          15 3 6 2 -1.</_>
        <_>
          18 3 3 2 2.</_></rects>
      <tilted>0</tilted></_>
    <_>
      <rects>
        <_>
          15 19 3 2 -1.</_>
        <_>
          15 20 3 1 2.</_></rects>
      <tilted>0</tilted></_>
    <_>
      <rects>
        <_>
          16 4 6 3 -1.</_>
        <_>
          16 5 6 1 3.</_></rects>
      <tilted>0</tilted></_>
    <_>
      <rects>
        <_>
          17 1 2 12 -1.</_>
        <_>
          17 5 2 4 3.</_></rects>
      <tilted>0</tilted></_>
    <_>
      <rects>
        <_>
          18 5 4 13 -1.</_>
        <_>
          20 5 2 13 2.</_></rects>
      <tilted>0</tilted></_>
    <_>
      <rects>
        <_>
          18 6 6 1 -1.</_>
        <_>
          21 6 3 1 2.</_></rects>
      <tilted>0</tilted></_>
    <_>
      <rects>
        <_>
          18 22 2 1 -1.</_>
        <_>
          19 22 1 1 2.</_></rects>
      <tilted>0</tilted></_>
    <_>
      <rects>
        <_>
          19 20 2 1 -1.</_>
        <_>
          20 20 1 1 2.</_></rects>
      <tilted>0</tilted></_>
    <_>
      <rects>
        <_>
          23 3 1 14 -1.</_>
        <_>
          23 10 1 7 2.</_></rects>
      <tilted>0</tilted></_>
    <_>
      <rects>
        <_>
          23 9 1 12 -1.</_>
        <_>
          23 13 1 4 3.</_></rects>
      <tilted>0</tilted></_></features></cascade>
</opencv_storage>
