<?xml version="1.0"?>
<opencv_storage>
<stage4>
  <maxWeakCount>5</maxWeakCount>
  <stageThreshold>-2.0968461036682129e-01</stageThreshold>
  <weakClassifiers>
    <_>
      <internalNodes>
        0 -1 4648 2.9701119661331177e-01</internalNodes>
      <leafValues>
        -5.1824820041656494e-01 7.7142858505249023e-01</leafValues></_>
    <_>
      <internalNodes>
        0 -1 13412 -4.9827224574983120e-04</internalNodes>
      <leafValues>
        -8.7733072042465210e-01 4.2966324090957642e-01</leafValues></_>
    <_>
      <internalNodes>
        0 -1 13011 1.1041520338039845e-04</internalNodes>
      <leafValues>
        3.4601002931594849e-01 -9.8511695861816406e-01</leafValues></_>
    <_>
      <internalNodes>
        0 -1 48031 -1.4866603538393974e-02</internalNodes>
      <leafValues>
        4.3400663137435913e-01 -8.2187366485595703e-01</leafValues></_>
    <_>
      <internalNodes>
        0 -1 162168 -3.6361997481435537e-03</internalNodes>
      <leafValues>
        -8.1488561630249023e-01 4.0587764978408813e-01</leafValues></_></weakClassifiers></stage4>
</opencv_storage>
